digraph Tree {
node [shape=box, fontname="helvetica"] ;
edge [fontname="helvetica"] ;
0 [label="age_<=30 <= 0.9\nentropy = 0.999\nsamples = 75\nvalue = [39, 36]\nclass = no"] ;
1 [label="income_low <= 0.139\nentropy = 0.932\nsamples = 46\nvalue = [16, 30]\nclass = yes"] ;
0 -> 1 [labeldistance=2.5, labelangle=45, headlabel="True"] ;
2 [label="credit_rating_excellent <= 0.383\nentropy = 0.242\nsamples = 25\nvalue = [1, 24]\nclass = yes"] ;
1 -> 2 ;
3 [label="entropy = 0.0\nsamples = 20\nvalue = [0, 20]\nclass = yes"] ;
2 -> 3 ;
4 [label="age_>40 <= 0.312\nentropy = 0.722\nsamples = 5\nvalue = [1, 4]\nclass = yes"] ;
2 -> 4 ;
5 [label="entropy = 0.0\nsamples = 4\nvalue = [0, 4]\nclass = yes"] ;
4 -> 5 ;
6 [label="entropy = 0.0\nsamples = 1\nvalue = [1, 0]\nclass = no"] ;
4 -> 6 ;
7 [label="student_no <= 0.529\nentropy = 0.863\nsamples = 21\nvalue = [15, 6]\nclass = no"] ;
1 -> 7 ;
8 [label="credit_rating_excellent <= 0.129\nentropy = 0.954\nsamples = 8\nvalue = [3, 5]\nclass = yes"] ;
7 -> 8 ;
9 [label="entropy = 0.863\nsamples = 7\nvalue = [2, 5]\nclass = yes"] ;
8 -> 9 ;
10 [label="entropy = 0.0\nsamples = 1\nvalue = [1, 0]\nclass = no"] ;
8 -> 10 ;
11 [label="credit_rating_fair <= 0.509\nentropy = 0.391\nsamples = 13\nvalue = [12, 1]\nclass = no"] ;
7 -> 11 ;
12 [label="entropy = 0.0\nsamples = 5\nvalue = [5, 0]\nclass = no"] ;
11 -> 12 ;
13 [label="entropy = 0.544\nsamples = 8\nvalue = [7, 1]\nclass = no"] ;
11 -> 13 ;
14 [label="income_low <= 0.185\nentropy = 0.736\nsamples = 29\nvalue = [23, 6]\nclass = no"] ;
0 -> 14 [labeldistance=2.5, labelangle=-45, headlabel="False"] ;
15 [label="student_no <= 0.045\nentropy = 0.31\nsamples = 18\nvalue = [17, 1]\nclass = no"] ;
14 -> 15 ;
16 [label="income_high <= 0.075\nentropy = 0.544\nsamples = 8\nvalue = [7, 1]\nclass = no"] ;
15 -> 16 ;
17 [label="entropy = 0.0\nsamples = 3\nvalue = [3, 0]\nclass = no"] ;
16 -> 17 ;
18 [label="entropy = 0.722\nsamples = 5\nvalue = [4, 1]\nclass = no"] ;
16 -> 18 ;
19 [label="entropy = 0.0\nsamples = 10\nvalue = [10, 0]\nclass = no"] ;
15 -> 19 ;
20 [label="credit_rating_fair <= 0.815\nentropy = 0.994\nsamples = 11\nvalue = [6, 5]\nclass = no"] ;
14 -> 20 ;
21 [label="entropy = 0.0\nsamples = 2\nvalue = [2, 0]\nclass = no"] ;
20 -> 21 ;
22 [label="student_yes <= 0.841\nentropy = 0.991\nsamples = 9\nvalue = [4, 5]\nclass = yes"] ;
20 -> 22 ;
23 [label="entropy = 1.0\nsamples = 6\nvalue = [3, 3]\nclass = no"] ;
22 -> 23 ;
24 [label="entropy = 0.918\nsamples = 3\nvalue = [1, 2]\nclass = yes"] ;
22 -> 24 ;
}
